<?xml version="1.0"?>
<opencv_storage>
<stage5>
  <maxWeakCount>5</maxWeakCount>
  <stageThreshold>-7.2162491083145142e-01</stageThreshold>
  <weakClassifiers>
    <_>
      <internalNodes>
        0 -1 48687 1.8752261996269226e-02</internalNodes>
      <leafValues>
        -9.0045249462127686e-01 4.7069942951202393e-01</leafValues></_>
    <_>
      <internalNodes>
        0 -1 128180 -2.3501887917518616e-03</internalNodes>
      <leafValues>
        4.5431956648826599e-01 -6.6756910085678101e-01</leafValues></_>
    <_>
      <internalNodes>
        0 -1 64799 -7.1401591412723064e-03</internalNodes>
      <leafValues>
        3.2755920290946960e-01 -9.2104607820510864e-01</leafValues></_>
    <_>
      <internalNodes>
        0 -1 143747 -1.0270781815052032e-02</internalNodes>
      <leafValues>
        3.3744201064109802e-01 -7.6871246099472046e-01</leafValues></_>
    <_>
      <internalNodes>
        0 -1 62185 -1.1720906943082809e-02</internalNodes>
      <leafValues>
        3.0811211466789246e-01 -8.5339480638504028e-01</leafValues></_></weakClassifiers></stage5>
</opencv_storage>
