<?xml version="1.0"?>
<opencv_storage>
<stage12>
  <maxWeakCount>6</maxWeakCount>
  <stageThreshold>-7.1591258049011230e-01</stageThreshold>
  <weakClassifiers>
    <_>
      <internalNodes>
        0 -1 163608 1.6967956980806775e-05</internalNodes>
      <leafValues>
        -6.6523605585098267e-01 3.9651837944984436e-01</leafValues></_>
    <_>
      <internalNodes>
        0 -1 158818 -6.1601569177582860e-04</internalNodes>
      <leafValues>
        -8.3951061964035034e-01 2.8421080112457275e-01</leafValues></_>
    <_>
      <internalNodes>
        0 -1 71833 -2.3303231224417686e-02</internalNodes>
      <leafValues>
        6.6342169046401978e-01 -3.7333524227142334e-01</leafValues></_>
    <_>
      <internalNodes>
        0 -1 156540 -1.7520906112622470e-04</internalNodes>
      <leafValues>
        2.5063437223434448e-01 -9.0123426914215088e-01</leafValues></_>
    <_>
      <internalNodes>
        0 -1 40302 -9.1791078448295593e-03</internalNodes>
      <leafValues>
        2.9790765047073364e-01 -7.4625086784362793e-01</leafValues></_>
    <_>
      <internalNodes>
        0 -1 17577 2.2348889708518982e-01</internalNodes>
      <leafValues>
        -3.6660811305046082e-01 5.9603142738342285e-01</leafValues></_></weakClassifiers></stage12>
</opencv_storage>
