<?xml version="1.0"?>
<opencv_storage>
<stage5>
  <maxWeakCount>5</maxWeakCount>
  <stageThreshold>-1.0056053400039673e+00</stageThreshold>
  <weakClassifiers>
    <_>
      <internalNodes>
        0 -1 174497 -1.1530566960573196e-02</internalNodes>
      <leafValues>
        7.1182793378829956e-01 -6.1869156360626221e-01</leafValues></_>
    <_>
      <internalNodes>
        0 -1 133007 -5.1980656571686268e-03</internalNodes>
      <leafValues>
        6.4001476764678955e-01 -5.1963329315185547e-01</leafValues></_>
    <_>
      <internalNodes>
        0 -1 72102 -1.3290581293404102e-02</internalNodes>
      <leafValues>
        7.0014065504074097e-01 -4.2103946208953857e-01</leafValues></_>
    <_>
      <internalNodes>
        0 -1 89816 4.4513493776321411e-03</internalNodes>
      <leafValues>
        3.3688336610794067e-01 -9.7979408502578735e-01</leafValues></_>
    <_>
      <internalNodes>
        0 -1 119290 -1.7859560903161764e-03</internalNodes>
      <leafValues>
        -9.0430444478988647e-01 3.5109379887580872e-01</leafValues></_></weakClassifiers></stage5>
</opencv_storage>
