<?xml version="1.0"?>
<opencv_storage>
<cascade>
  <stageType>BOOST</stageType>
  <featureType>HAAR</featureType>
  <height>25</height>
  <width>25</width>
  <stageParams>
    <boostType>GAB</boostType>
    <minHitRate>9.9500000476837158e-01</minHitRate>
    <maxFalseAlarm>4.0000000596046448e-01</maxFalseAlarm>
    <weightTrimRate>9.4999999999999996e-01</weightTrimRate>
    <maxDepth>1</maxDepth>
    <maxWeakCount>100</maxWeakCount></stageParams>
  <featureParams>
    <maxCatCount>0</maxCatCount>
    <featSize>1</featSize>
    <mode>BASIC</mode></featureParams>
  <stageNum>12</stageNum>
  <stages>
    <!-- stage 0 -->
    <_>
      <maxWeakCount>2</maxWeakCount>
      <stageThreshold>-9.0191461145877838e-02</stageThreshold>
      <weakClassifiers>
        <_>
          <internalNodes>
            0 -1 14 -1.9699465483427048e-02</internalNodes>
          <leafValues>
            9.2156863212585449e-01 -9.5918369293212891e-01</leafValues></_>
        <_>
          <internalNodes>
            0 -1 0 1.9461000338196754e-02</internalNodes>
          <leafValues>
            -9.7842049598693848e-01 8.6899220943450928e-01</leafValues></_></weakClassifiers></_>
    <!-- stage 1 -->
    <_>
      <maxWeakCount>2</maxWeakCount>
      <stageThreshold>-1.4606186747550964e-01</stageThreshold>
      <weakClassifiers>
        <_>
          <internalNodes>
            0 -1 5 -6.6837389022111893e-03</internalNodes>
          <leafValues>
            8.7644785642623901e-01 -9.4190871715545654e-01</leafValues></_>
        <_>
          <internalNodes>
            0 -1 16 -5.5262394249439240e-02</internalNodes>
          <leafValues>
            7.9584681987762451e-01 -9.5799314975738525e-01</leafValues></_></weakClassifiers></_>
    <!-- stage 2 -->
    <_>
      <maxWeakCount>1</maxWeakCount>
      <stageThreshold>6.8350166082382202e-01</stageThreshold>
      <weakClassifiers>
        <_>
          <internalNodes>
            0 -1 9 -1.5395877882838249e-02</internalNodes>
          <leafValues>
            6.8350166082382202e-01 -1.</leafValues></_></weakClassifiers></_>
    <!-- stage 3 -->
    <_>
      <maxWeakCount>2</maxWeakCount>
      <stageThreshold>-1.3032056391239166e-01</stageThreshold>
      <weakClassifiers>
        <_>
          <internalNodes>
            0 -1 18 -7.0418380200862885e-03</internalNodes>
          <leafValues>
            7.5000000000000000e-01 -9.5454543828964233e-01</leafValues></_>
        <_>
          <internalNodes>
            0 -1 10 -6.2963441014289856e-03</internalNodes>
          <leafValues>
            8.2422488927841187e-01 -8.6104720830917358e-01</leafValues></_></weakClassifiers></_>
    <!-- stage 4 -->
    <_>
      <maxWeakCount>2</maxWeakCount>
      <stageThreshold>4.8863068222999573e-02</stageThreshold>
      <weakClassifiers>
        <_>
          <internalNodes>
            0 -1 3 -2.6449400931596756e-02</internalNodes>
          <leafValues>
            8.6547082662582397e-01 -6.9675087928771973e-01</leafValues></_>
        <_>
          <internalNodes>
            0 -1 23 -9.4831306487321854e-03</internalNodes>
          <leafValues>
            7.4561399221420288e-01 -7.5725322961807251e-01</leafValues></_></weakClassifiers></_>
    <!-- stage 5 -->
    <_>
      <maxWeakCount>3</maxWeakCount>
      <stageThreshold>1.2582877278327942e-01</stageThreshold>
      <weakClassifiers>
        <_>
          <internalNodes>
            0 -1 8 -3.7499475292861462e-03</internalNodes>
          <leafValues>
            6.9565218687057495e-01 -8.5714286565780640e-01</leafValues></_>
        <_>
          <internalNodes>
            0 -1 15 -9.2204730026423931e-04</internalNodes>
          <leafValues>
            5.4514449834823608e-01 -9.7679555416107178e-01</leafValues></_>
        <_>
          <internalNodes>
            0 -1 22 1.3869954273104668e-03</internalNodes>
          <leafValues>
            -9.8718070983886719e-01 4.3782711029052734e-01</leafValues></_></weakClassifiers></_>
    <!-- stage 6 -->
    <_>
      <maxWeakCount>2</maxWeakCount>
      <stageThreshold>-6.8886205554008484e-02</stageThreshold>
      <weakClassifiers>
        <_>
          <internalNodes>
            0 -1 11 -2.8447606600821018e-03</internalNodes>
          <leafValues>
            6.2199312448501587e-01 -8.6602872610092163e-01</leafValues></_>
        <_>
          <internalNodes>
            0 -1 6 2.6104055345058441e-02</internalNodes>
          <leafValues>
            -6.6420018672943115e-01 7.9714250564575195e-01</leafValues></_></weakClassifiers></_>
    <!-- stage 7 -->
    <_>
      <maxWeakCount>2</maxWeakCount>
      <stageThreshold>-1.3729658722877502e-01</stageThreshold>
      <weakClassifiers>
        <_>
          <internalNodes>
            0 -1 17 -1.3963630422949791e-02</internalNodes>
          <leafValues>
            5.4920637607574463e-01 -9.3513512611389160e-01</leafValues></_>
        <_>
          <internalNodes>
            0 -1 2 4.0727417916059494e-02</internalNodes>
          <leafValues>
            -6.7212283611297607e-01 7.9783856868743896e-01</leafValues></_></weakClassifiers></_>
    <!-- stage 8 -->
    <_>
      <maxWeakCount>3</maxWeakCount>
      <stageThreshold>1.5260191261768341e-01</stageThreshold>
      <weakClassifiers>
        <_>
          <internalNodes>
            0 -1 20 -3.5930934827774763e-03</internalNodes>
          <leafValues>
            6.2457334995269775e-01 -8.8405799865722656e-01</leafValues></_>
        <_>
          <internalNodes>
            0 -1 4 -8.1139653921127319e-03</internalNodes>
          <leafValues>
            4.9962219595909119e-01 -9.5251774787902832e-01</leafValues></_>
        <_>
          <internalNodes>
            0 -1 21 -6.3695944845676422e-03</internalNodes>
          <leafValues>
            5.3703767061233521e-01 -9.6365439891815186e-01</leafValues></_></weakClassifiers></_>
    <!-- stage 9 -->
    <_>
      <maxWeakCount>2</maxWeakCount>
      <stageThreshold>1.2237046845257282e-02</stageThreshold>
      <weakClassifiers>
        <_>
          <internalNodes>
            0 -1 25 -6.4768060110509396e-03</internalNodes>
          <leafValues>
            7.9464286565780640e-01 -6.4492756128311157e-01</leafValues></_>
        <_>
          <internalNodes>
            0 -1 12 2.8597656637430191e-03</internalNodes>
          <leafValues>
            -7.8240579366683960e-01 6.6989731788635254e-01</leafValues></_></weakClassifiers></_>
    <!-- stage 10 -->
    <_>
      <maxWeakCount>1</maxWeakCount>
      <stageThreshold>4.7058823704719543e-01</stageThreshold>
      <weakClassifiers>
        <_>
          <internalNodes>
            0 -1 7 -7.2244768962264061e-03</internalNodes>
          <leafValues>
            4.7058823704719543e-01 -1.</leafValues></_></weakClassifiers></_>
    <!-- stage 11 -->
    <_>
      <maxWeakCount>4</maxWeakCount>
      <stageThreshold>-2.2242635488510132e-01</stageThreshold>
      <weakClassifiers>
        <_>
          <internalNodes>
            0 -1 13 2.0457357168197632e-02</internalNodes>
          <leafValues>
            -6.5461850166320801e-01 6.4940237998962402e-01</leafValues></_>
        <_>
          <internalNodes>
            0 -1 24 -1.8207691609859467e-02</internalNodes>
          <leafValues>
            8.6683785915374756e-01 -5.3655219078063965e-01</leafValues></_>
        <_>
          <internalNodes>
            0 -1 19 -1.8381743575446308e-04</internalNodes>
          <leafValues>
            5.7216709852218628e-01 -8.1327778100967407e-01</leafValues></_>
        <_>
          <internalNodes>
            0 -1 1 4.1452106088399887e-03</internalNodes>
          <leafValues>
            -9.6333837509155273e-01 4.7800117731094360e-01</leafValues></_></weakClassifiers></_></stages>
  <features>
    <_>
      <rects>
        <_>
          3 2 14 6 -1.</_>
        <_>
          3 2 7 3 2.</_>
        <_>
          10 5 7 3 2.</_></rects>
      <tilted>0</tilted></_>
    <_>
      <rects>
        <_>
          3 10 4 14 -1.</_>
        <_>
          3 10 2 7 2.</_>
        <_>
          5 17 2 7 2.</_></rects>
      <tilted>0</tilted></_>
    <_>
      <rects>
        <_>
          4 2 6 14 -1.</_>
        <_>
          4 2 3 7 2.</_>
        <_>
          7 9 3 7 2.</_></rects>
      <tilted>0</tilted></_>
    <_>
      <rects>
        <_>
          5 7 3 12 -1.</_>
        <_>
          6 7 1 12 3.</_></rects>
      <tilted>0</tilted></_>
    <_>
      <rects>
        <_>
          5 13 3 5 -1.</_>
        <_>
          6 13 1 5 3.</_></rects>
      <tilted>0</tilted></_>
    <_>
      <rects>
        <_>
          5 14 3 4 -1.</_>
        <_>
          6 14 1 4 3.</_></rects>
      <tilted>0</tilted></_>
    <_>
      <rects>
        <_>
          6 2 6 6 -1.</_>
        <_>
          6 2 3 3 2.</_>
        <_>
          9 5 3 3 2.</_></rects>
      <tilted>0</tilted></_>
    <_>
      <rects>
        <_>
          6 14 17 6 -1.</_>
        <_>
          6 17 17 3 2.</_></rects>
      <tilted>0</tilted></_>
    <_>
      <rects>
        <_>
          6 18 3 3 -1.</_>
        <_>
          7 18 1 3 3.</_></rects>
      <tilted>0</tilted></_>
    <_>
      <rects>
        <_>
          7 0 12 2 -1.</_>
        <_>
          11 0 4 2 3.</_></rects>
      <tilted>0</tilted></_>
    <_>
      <rects>
        <_>
          7 17 2 8 -1.</_>
        <_>
          7 17 1 4 2.</_>
        <_>
          8 21 1 4 2.</_></rects>
      <tilted>0</tilted></_>
    <_>
      <rects>
        <_>
          7 23 6 1 -1.</_>
        <_>
          9 23 2 1 3.</_></rects>
      <tilted>0</tilted></_>
    <_>
      <rects>
        <_>
          8 2 4 2 -1.</_>
        <_>
          8 2 2 1 2.</_>
        <_>
          10 3 2 1 2.</_></rects>
      <tilted>0</tilted></_>
    <_>
      <rects>
        <_>
          9 2 7 4 -1.</_>
        <_>
          9 4 7 2 2.</_></rects>
      <tilted>0</tilted></_>
    <_>
      <rects>
        <_>
          10 0 8 6 -1.</_>
        <_>
          10 0 4 3 2.</_>
        <_>
          14 3 4 3 2.</_></rects>
      <tilted>0</tilted></_>
    <_>
      <rects>
        <_>
          11 12 8 4 -1.</_>
        <_>
          11 14 8 2 2.</_></rects>
      <tilted>0</tilted></_>
    <_>
      <rects>
        <_>
          12 10 12 8 -1.</_>
        <_>
          18 10 6 8 2.</_></rects>
      <tilted>0</tilted></_>
    <_>
      <rects>
        <_>
          12 17 7 8 -1.</_>
        <_>
          12 21 7 4 2.</_></rects>
      <tilted>0</tilted></_>
    <_>
      <rects>
        <_>
          14 4 4 3 -1.</_>
        <_>
          16 4 2 3 2.</_></rects>
      <tilted>0</tilted></_>
    <_>
      <rects>
        <_>
          14 8 2 1 -1.</_>
        <_>
          15 8 1 1 2.</_></rects>
      <tilted>0</tilted></_>
    <_>
      <rects>
        <_>
          14 9 6 1 -1.</_>
        <_>
          17 9 3 1 2.</_></rects>
      <tilted>0</tilted></_>
    <_>
      <rects>
        <_>
          14 16 4 9 -1.</_>
        <_>
          16 16 2 9 2.</_></rects>
      <tilted>0</tilted></_>
    <_>
      <rects>
        <_>
          15 5 2 4 -1.</_>
        <_>
          15 5 1 2 2.</_>
        <_>
          16 7 1 2 2.</_></rects>
      <tilted>0</tilted></_>
    <_>
      <rects>
        <_>
          16 14 4 3 -1.</_>
        <_>
          18 14 2 3 2.</_></rects>
      <tilted>0</tilted></_>
    <_>
      <rects>
        <_>
          17 3 2 10 -1.</_>
        <_>
          17 3 1 5 2.</_>
        <_>
          18 8 1 5 2.</_></rects>
      <tilted>0</tilted></_>
    <_>
      <rects>
        <_>
          17 8 3 3 -1.</_>
        <_>
          18 8 1 3 3.</_></rects>
      <tilted>0</tilted></_></features></cascade>
</opencv_storage>
