<?xml version="1.0"?>
<opencv_storage>
<stage8>
  <maxWeakCount>9</maxWeakCount>
  <stageThreshold>1.0935436487197876e+00</stageThreshold>
  <weakClassifiers>
    <_>
      <internalNodes>
        0 -1 8697 993001472 404751408 266342192 220204348 779091984
        758206260 34607120 286266640</internalNodes>
      <leafValues>
        5.5248620919883251e-03 9.6761327981948853e-01</leafValues></_>
    <_>
      <internalNodes>
        0 -1 8731 -1512065109 552505082 -1595671822 1088577860
        1193608453 170914571 42008896 1083228451</internalNodes>
      <leafValues>
        4.9737010151147842e-02 8.7698191404342651e-01</leafValues></_>
    <_>
      <internalNodes>
        0 -1 8485 699408189 -358298155 1941916043 -144575071 472625050
        -1364658483 419581653 266863668</internalNodes>
      <leafValues>
        -3.5146936774253845e-01 6.8581581115722656e-01</leafValues></_>
    <_>
      <internalNodes>
        0 -1 1070 -431493133 -284924300 1709275638 -150895142 954503
        -552671522 5107345 -134528319</internalNodes>
      <leafValues>
        -4.3056640028953552e-01 6.6744428873062134e-01</leafValues></_>
    <_>
      <internalNodes>
        0 -1 9283 -1952842785 -797352768 1064566484 -48814336
        -1507685688 -1036286832 -1341126240 -54035147</internalNodes>
      <leafValues>
        -4.1200411319732666e-01 6.6958457231521606e-01</leafValues></_>
    <_>
      <internalNodes>
        0 -1 7611 -4233345 -743472729 -1405752053 -46588387 -2086414334
        -1987792704 -2127386366 -1412960813</internalNodes>
      <leafValues>
        -3.8148459792137146e-01 7.3376464843750000e-01</leafValues></_>
    <_>
      <internalNodes>
        0 -1 5512 -1298933901 -2093573707 226561461 721898315 739492799
        1247393882 -750202675 -1968699255</internalNodes>
      <leafValues>
        -4.0610975027084351e-01 6.3622778654098511e-01</leafValues></_>
    <_>
      <internalNodes>
        0 -1 5231 -1557924873 -648879616 1491494619 -682326880 758035947
        -2020677462 115036657 -624279319</internalNodes>
      <leafValues>
        -3.7396681308746338e-01 6.8080466985702515e-01</leafValues></_>
    <_>
      <internalNodes>
        0 -1 638 -202170305 1141287300 -458162561 -1040129910 741822468
        -1878553321 -840782429 -327681024</internalNodes>
      <leafValues>
        -4.4041511416435242e-01 5.6221199035644531e-01</leafValues></_></weakClassifiers></stage8>
</opencv_storage>
