<?xml version="1.0"?>
<opencv_storage>
<stage19>
  <maxWeakCount>10</maxWeakCount>
  <stageThreshold>1.1816003322601318e+00</stageThreshold>
  <weakClassifiers>
    <_>
      <internalNodes>
        0 -1 7729 100663808 537407328 788284332 9190912 607389504
        1425293108 896808704 0</internalNodes>
      <leafValues>
        6.2937065958976746e-02 9.6584767103195190e-01</leafValues></_>
    <_>
      <internalNodes>
        0 -1 6896 1195682792 1345382012 1608035896 -2121236352
        1574703512 628365549 -782783750 366032986</internalNodes>
      <leafValues>
        -7.0496074855327606e-02 8.5012882947921753e-01</leafValues></_>
    <_>
      <internalNodes>
        0 -1 9055 -948578509 733477554 -1229642927 -1047627678
        -343375802 -1675062005 765448881 -1146428194</internalNodes>
      <leafValues>
        -2.0340196788311005e-01 7.2619408369064331e-01</leafValues></_>
    <_>
      <internalNodes>
        0 -1 3917 -752692824 1480872084 268456657 1830355347 -1862147377
        -1328906102 1210194175 1150321295</internalNodes>
      <leafValues>
        -5.9355068206787109e-01 4.6216318011283875e-01</leafValues></_>
    <_>
      <internalNodes>
        0 -1 4847 -663797249 -650764002 1684048975 1024458888 179340182
        -1711242126 -794626338 -345309878</internalNodes>
      <leafValues>
        -3.5938802361488342e-01 6.1942690610885620e-01</leafValues></_>
    <_>
      <internalNodes>
        0 -1 7548 -2097669003 -602062757 -654188328 1879998508
        -796856180 -1583185920 -1065300753 134550543</internalNodes>
      <leafValues>
        -4.8873198032379150e-01 4.8573079705238342e-01</leafValues></_>
    <_>
      <internalNodes>
        0 -1 9282 -2079865909 32794 -1056862191 -766000959 -503218144
        -1433927520 69574856 299851905</internalNodes>
      <leafValues>
        -5.4812443256378174e-01 3.8809734582901001e-01</leafValues></_>
    <_>
      <internalNodes>
        0 -1 5776 1614997747 -716251040 1400838132 1363038385 682276259
        -1736207430 1199318333 -558966767</internalNodes>
      <leafValues>
        -4.1652300953865051e-01 5.6246143579483032e-01</leafValues></_>
    <_>
      <internalNodes>
        0 -1 6337 1366611409 -1259174875 1224933738 454623492
        -1609514497 1078329948 704709838 2080895681</internalNodes>
      <leafValues>
        -4.6152636408805847e-01 4.7210478782653809e-01</leafValues></_>
    <_>
      <internalNodes>
        0 -1 9611 152511503 -172380591 -2141183960 283468418 -509622008
        -478113792 -1025049910 -253240768</internalNodes>
      <leafValues>
        -3.6257874965667725e-01 5.8596253395080566e-01</leafValues></_></weakClassifiers></stage19>
</opencv_storage>
