<?xml version="1.0"?>
<opencv_storage>
<stage27>
  <maxWeakCount>12</maxWeakCount>
  <stageThreshold>1.1704579591751099e+00</stageThreshold>
  <weakClassifiers>
    <_>
      <internalNodes>
        0 -1 8439 -1591500800 -1574002144 -2072206192 270826800 18550784
        218419200 100470784 581664</internalNodes>
      <leafValues>
        3.1159418821334839e-01 9.6788769960403442e-01</leafValues></_>
    <_>
      <internalNodes>
        0 -1 4496 8572610 1261503243 1709397653 -1042067888 -1971187837
        -977793720 1275859137 1305493573</internalNodes>
      <leafValues>
        1.6089521348476410e-02 8.5698121786117554e-01</leafValues></_>
    <_>
      <internalNodes>
        0 -1 5857 -677320760 1560281681 1042367540 423201435 -2001722978
        -1677435183 421551555 993659003</internalNodes>
      <leafValues>
        -3.8257130980491638e-01 6.0070544481277466e-01</leafValues></_>
    <_>
      <internalNodes>
        0 -1 9231 -2084087074 -888458273 100849026 -1064990433
        -116756286 -779992700 -2113819974 -39154981</internalNodes>
      <leafValues>
        -3.2800644636154175e-01 6.1380141973495483e-01</leafValues></_>
    <_>
      <internalNodes>
        0 -1 5807 -611000925 857145483 -1610181174 1412562961 526511
        1671954568 1812066317 11228162</internalNodes>
      <leafValues>
        -5.5393677949905396e-01 4.0408337116241455e-01</leafValues></_>
    <_>
      <internalNodes>
        0 -1 3424 -1025027369 1342644923 -894260766 287866922 1345143812
        17412 -802696161 -637537051</internalNodes>
      <leafValues>
        -3.3353993296623230e-01 6.3185924291610718e-01</leafValues></_>
    <_>
      <internalNodes>
        0 -1 8046 1393873839 -73983475 1343291548 -728923976 -1318485236
        -805279663 -1976519098 1289341490</internalNodes>
      <leafValues>
        -4.6226206421852112e-01 4.3560689687728882e-01</leafValues></_>
    <_>
      <internalNodes>
        0 -1 8771 -685304695 146934145 478216528 1967214679 -643462528
        -1997680400 2068611904 1547956372</internalNodes>
      <leafValues>
        -5.7289415597915649e-01 3.5475769639015198e-01</leafValues></_>
    <_>
      <internalNodes>
        0 -1 5392 -503084501 -536747891 -267380592 -804007872 1275072624
        38440960 -494925439 1593960545</internalNodes>
      <leafValues>
        -5.2292859554290771e-01 3.7040990591049194e-01</leafValues></_>
    <_>
      <internalNodes>
        0 -1 1820 -938613081 -169791452 1104029461 1359138084 1343181821
        554092591 1084705169 -440409546</internalNodes>
      <leafValues>
        -3.4321928024291992e-01 6.0344946384429932e-01</leafValues></_>
    <_>
      <internalNodes>
        0 -1 7782 891425717 672483664 -75678187 -1913526637 230741881
        -823087351 -1912284013 530060379</internalNodes>
      <leafValues>
        -3.8113340735435486e-01 5.2373725175857544e-01</leafValues></_>
    <_>
      <internalNodes>
        0 -1 8943 -132675817 -1404235391 352864018 815311003 295973135
        453804175 -351629758 -65550283</internalNodes>
      <leafValues>
        -4.1414147615432739e-01 4.7685340046882629e-01</leafValues></_></weakClassifiers></stage27>
</opencv_storage>
