<?xml version="1.0"?>
<opencv_storage>
<stage12>
  <maxWeakCount>11</maxWeakCount>
  <stageThreshold>1.0163087844848633e+00</stageThreshold>
  <weakClassifiers>
    <_>
      <internalNodes>
        0 -1 8349 67108864 454952000 251533668 139068500 2099200
        2138463663 0 2048</internalNodes>
      <leafValues>
        -1.5294118225574493e-01 9.6450912952423096e-01</leafValues></_>
    <_>
      <internalNodes>
        0 -1 5950 -247420164 1426179544 539820046 453841029 106215612
        1364526212 806467752 184614920</internalNodes>
      <leafValues>
        8.9267745614051819e-02 8.6106014251708984e-01</leafValues></_>
    <_>
      <internalNodes>
        0 -1 4636 -242757509 -418725312 69482835 537126176 1096733483
        -1941273087 1373028562 2070383675</internalNodes>
      <leafValues>
        -2.1868008375167847e-01 7.0299619436264038e-01</leafValues></_>
    <_>
      <internalNodes>
        0 -1 4246 -80248653 -1007253393 270676677 1883770123 -739835890
        -2146678194 1224640683 -147600677</internalNodes>
      <leafValues>
        -3.2310000061988831e-01 7.1379721164703369e-01</leafValues></_>
    <_>
      <internalNodes>
        0 -1 5140 -1843854202 -1257176943 1359086848 2125568217
        -645625667 243270785 1216399787 1383598696</internalNodes>
      <leafValues>
        -5.4085898399353027e-01 4.3367350101470947e-01</leafValues></_>
    <_>
      <internalNodes>
        0 -1 8347 -1638704039 -637594301 308904587 815907487 -2104964088
        -1140143027 -637238630 -609688945</internalNodes>
      <leafValues>
        -3.6231482028961182e-01 6.3585835695266724e-01</leafValues></_>
    <_>
      <internalNodes>
        0 -1 7233 -801834584 -1789623930 1077948593 -247528926
        1946429738 -804779824 -2013028200 -701507910</internalNodes>
      <leafValues>
        -5.4662615060806274e-01 4.0655258297920227e-01</leafValues></_>
    <_>
      <internalNodes>
        0 -1 8925 -632556953 -753437988 539244549 12771595 716540424
        -930787197 277479555 -654392356</internalNodes>
      <leafValues>
        -3.5706260800361633e-01 6.1795252561569214e-01</leafValues></_>
    <_>
      <internalNodes>
        0 -1 5296 -837024273 -485513714 -495300069 -263995007 859253127
        -2004721650 1985239827 2065620959</internalNodes>
      <leafValues>
        -4.2854550480842590e-01 5.0272715091705322e-01</leafValues></_>
    <_>
      <internalNodes>
        0 -1 5476 1378890220 1350570001 17875016 1431520538 193497801
        1879081121 361466350 855773320</internalNodes>
      <leafValues>
        -5.3336477279663086e-01 3.9902275800704956e-01</leafValues></_>
    <_>
      <internalNodes>
        0 -1 9271 -1305806859 -98021112 125525389 -518899691 704887640
        -1441263608 -1995393637 -40645457</internalNodes>
      <leafValues>
        -3.2618907094001770e-01 6.7616033554077148e-01</leafValues></_></weakClassifiers></stage12>
</opencv_storage>
