<?xml version="1.0"?>
<opencv_storage>
<stage5>
  <maxWeakCount>8</maxWeakCount>
  <stageThreshold>1.1909419298171997e+00</stageThreshold>
  <weakClassifiers>
    <_>
      <internalNodes>
        0 -1 7720 -821070336 34389766 -1427136000 10677162 1466832640
        61188 557257728 24864</internalNodes>
      <leafValues>
        -6.4596155308266535e-17 9.6891558170318604e-01</leafValues></_>
    <_>
      <internalNodes>
        0 -1 3983 -1496872438 -473450746 549093890 -206068950 295132484
        121971716 -229137013 2002511983</internalNodes>
      <leafValues>
        -1.5453051030635834e-01 8.9197868108749390e-01</leafValues></_>
    <_>
      <internalNodes>
        0 -1 7591 -186131657 898889741 -1716793334 806536455 1184121604
        1476552487 -1481142750 -203424233</internalNodes>
      <leafValues>
        -2.4750374257564545e-01 7.9934245347976685e-01</leafValues></_>
    <_>
      <internalNodes>
        0 -1 463 -348458349 -1971158819 -889564077 -526425978
        -1757220031 1107493632 -381963999 -940877969</internalNodes>
      <leafValues>
        -4.5392104983329773e-01 6.7811572551727295e-01</leafValues></_>
    <_>
      <internalNodes>
        0 -1 8995 -1160275349 -1242570233 -1058971136 1927193250
        -310558652 1346639047 -796737024 -221786645</internalNodes>
      <leafValues>
        -4.7912195324897766e-01 6.2200194597244263e-01</leafValues></_>
    <_>
      <internalNodes>
        0 -1 9055 -675556575 -450723070 -705367663 -794823245
        -1656619776 -1995719422 1152888932 -495201381</internalNodes>
      <leafValues>
        -4.8672178387641907e-01 6.3677716255187988e-01</leafValues></_>
    <_>
      <internalNodes>
        0 -1 5879 -2120969377 2114195523 67018 390143021 8651951
        1108345355 1552627591 1396986641</internalNodes>
      <leafValues>
        -6.3481265306472778e-01 4.4526806473731995e-01</leafValues></_>
    <_>
      <internalNodes>
        0 -1 926 2110255694 -2132990267 4416065 -1009929642 -146755503
        -795799472 1662223271 -218769213</internalNodes>
      <leafValues>
        -5.0667285919189453e-01 5.8528268337249756e-01</leafValues></_></weakClassifiers></stage5>
</opencv_storage>
