<?xml version="1.0"?>
<opencv_storage>
<stage18>
  <maxWeakCount>11</maxWeakCount>
  <stageThreshold>1.1404708623886108e+00</stageThreshold>
  <weakClassifiers>
    <_>
      <internalNodes>
        0 -1 6896 67676808 137421936 1599666792 -1711271936 68157856
        87314676 -614538536 67371520</internalNodes>
      <leafValues>
        3.2404181361198425e-01 9.6803236007690430e-01</leafValues></_>
    <_>
      <internalNodes>
        0 -1 8382 377487488 1124205889 775437774 250152307 -1441101696
        146705527 -1574896966 991102004</internalNodes>
      <leafValues>
        -9.7297325730323792e-02 8.4746241569519043e-01</leafValues></_>
    <_>
      <internalNodes>
        0 -1 4770 -975282437 -739695598 227544371 425215312 -440252854
        -38531628 -2079680120 -1934993590</internalNodes>
      <leafValues>
        -2.5499993562698364e-01 7.0769441127777100e-01</leafValues></_>
    <_>
      <internalNodes>
        0 -1 9231 1771000520 1460437450 61364424 -2080302961 1288634464
        -527859584 1728391818 -124064005</internalNodes>
      <leafValues>
        -3.9377442002296448e-01 5.7446205615997314e-01</leafValues></_>
    <_>
      <internalNodes>
        0 -1 5989 -2145381616 271615026 1203592889 2107190400
        -1037316963 -56563792 -1390900308 967557137</internalNodes>
      <leafValues>
        -3.9961570501327515e-01 5.4129999876022339e-01</leafValues></_>
    <_>
      <internalNodes>
        0 -1 8395 546818955 -998168695 848126479 312083088 -1239045624
        -433552375 2014503584 -906710510</internalNodes>
      <leafValues>
        -4.0281793475151062e-01 5.2737188339233398e-01</leafValues></_>
    <_>
      <internalNodes>
        0 -1 1643 -1069112145 -41565807 152125444 1930527501 805323707
        -1842192373 -291452807 2017919111</internalNodes>
      <leafValues>
        -5.0214403867721558e-01 4.2996510863304138e-01</leafValues></_>
    <_>
      <internalNodes>
        0 -1 3458 -470290177 -669953580 195602538 1091748356 1107560576
        1344607316 -1614790376 -540542723</internalNodes>
      <leafValues>
        -3.3165144920349121e-01 6.6196000576019287e-01</leafValues></_>
    <_>
      <internalNodes>
        0 -1 5396 -195424098 -1726316489 -871347124 874123419 1216565290
        135954434 -930424695 1762037034</internalNodes>
      <leafValues>
        -5.4179543256759644e-01 4.0006169676780701e-01</leafValues></_>
    <_>
      <internalNodes>
        0 -1 6326 -2099077117 -784660197 397583879 -1281133808
        -1568488991 -627447126 -1869702087 -61956985</internalNodes>
      <leafValues>
        -3.6431258916854858e-01 6.2173610925674438e-01</leafValues></_>
    <_>
      <internalNodes>
        0 -1 1539 -486107149 -1687312848 1026964477 -1723857920
        412094202 -1226423124 752094431 -812957078</internalNodes>
      <leafValues>
        -2.9879441857337952e-01 6.5076231956481934e-01</leafValues></_></weakClassifiers></stage18>
</opencv_storage>
