<?xml version="1.0"?>
<opencv_storage>
<stage16>
  <maxWeakCount>11</maxWeakCount>
  <stageThreshold>7.3092830181121826e-01</stageThreshold>
  <weakClassifiers>
    <_>
      <internalNodes>
        0 -1 7272 941629696 707309320 774578208 218113568 -1893719552
        757082144 2105600 2105376</internalNodes>
      <leafValues>
        -1.7647059261798859e-01 9.6535158157348633e-01</leafValues></_>
    <_>
      <internalNodes>
        0 -1 6469 285226652 356543760 839295886 822149160 1242595496
        1539094505 998457596 722993160</internalNodes>
      <leafValues>
        1.2243414670228958e-01 8.7461870908737183e-01</leafValues></_>
    <_>
      <internalNodes>
        0 -1 284 -680295188 -76216357 1341344693 -1990144472 -599079308
        331623969 -390198707 -179124139</internalNodes>
      <leafValues>
        -2.3609128594398499e-01 6.9926702976226807e-01</leafValues></_>
    <_>
      <internalNodes>
        0 -1 9470 -239611649 -1927235478 1886445745 -224795911
        1116727818 1208329904 1939718323 1145022411</internalNodes>
      <leafValues>
        -4.5346394181251526e-01 5.5404931306838989e-01</leafValues></_>
    <_>
      <internalNodes>
        0 -1 9013 -1964516355 -1716939248 -1888074164 -1955651576
        -1689178977 -1915665271 -1948827447 -1784475772</internalNodes>
      <leafValues>
        -4.8644745349884033e-01 5.0231516361236572e-01</leafValues></_>
    <_>
      <internalNodes>
        0 -1 7617 -1782068532 283492864 662732904 -996590291 -669025486
        -779712381 -1448892921 -1846066265</internalNodes>
      <leafValues>
        -5.0342315435409546e-01 4.6367251873016357e-01</leafValues></_>
    <_>
      <internalNodes>
        0 -1 7686 -677779236 370844430 50735552 -680189687 1124504043
        -1593679816 280821785 -1074061548</internalNodes>
      <leafValues>
        -5.0887155532836914e-01 4.2985898256301880e-01</leafValues></_>
    <_>
      <internalNodes>
        0 -1 4246 1347905271 -466582669 1344539 1916928144 1778606146
        -930611198 -100439103 1933700095</internalNodes>
      <leafValues>
        -4.9553525447845459e-01 4.8088964819908142e-01</leafValues></_>
    <_>
      <internalNodes>
        0 -1 6390 1429047556 -984380768 -1992662528 1389212219
        1629696368 -1026554489 -1166953822 -1822623588</internalNodes>
      <leafValues>
        -4.4493457674980164e-01 5.0929665565490723e-01</leafValues></_>
    <_>
      <internalNodes>
        0 -1 9210 -1227291945 1397948483 135336221 806367558 -1333049856
        -1790246912 1073808099 1919074721</internalNodes>
      <leafValues>
        -5.2530801296234131e-01 4.2188465595245361e-01</leafValues></_>
    <_>
      <internalNodes>
        0 -1 6486 386158693 1417612688 451810269 1436050774 967330841
        -1134782482 -1095725429 -1695805266</internalNodes>
      <leafValues>
        -3.8997319340705872e-01 5.7247221469879150e-01</leafValues></_></weakClassifiers></stage16>
</opencv_storage>
