<?xml version="1.0"?>
<opencv_storage>
<stage30>
  <maxWeakCount>12</maxWeakCount>
  <stageThreshold>9.6420371532440186e-01</stageThreshold>
  <weakClassifiers>
    <_>
      <internalNodes>
        0 -1 7162 270078976 190651652 1141641480 7252 1345851396
        1549604437 786440 34675785</internalNodes>
      <leafValues>
        3.5055351257324219e-01 9.6733915805816650e-01</leafValues></_>
    <_>
      <internalNodes>
        0 -1 5941 -810135083 1425682084 1462009660 760747248 270550452
        145235573 1617444652 145230076</internalNodes>
      <leafValues>
        1.9247733056545258e-02 8.5044801235198975e-01</leafValues></_>
    <_>
      <internalNodes>
        0 -1 9242 599210871 -1207949304 2127940624 -264824808 36902975
        355652658 1080100924 1848364234</internalNodes>
      <leafValues>
        -2.2885864973068237e-01 6.5335375070571899e-01</leafValues></_>
    <_>
      <internalNodes>
        0 -1 5202 -675097875 1728075072 -1676480779 1881367827
        1200412518 -729644384 -318347538 2064048977</internalNodes>
      <leafValues>
        -4.1103580594062805e-01 5.3114801645278931e-01</leafValues></_>
    <_>
      <internalNodes>
        0 -1 3620 -784100630 -646646576 -2079013049 -984337533
        -1853814570 -18857776 -2113927155 1489472609</internalNodes>
      <leafValues>
        -4.2995634675025940e-01 4.8802536725997925e-01</leafValues></_>
    <_>
      <internalNodes>
        0 -1 7562 -748169660 -108584960 1627686115 1413743367 -803106802
        -121503739 167838863 -1182326290</internalNodes>
      <leafValues>
        -5.3395265340805054e-01 3.7831145524978638e-01</leafValues></_>
    <_>
      <internalNodes>
        0 -1 5827 -1391414856 -162425549 1073840192 -653695680
        -2124631784 403243042 553766953 403231113</internalNodes>
      <leafValues>
        -5.6854653358459473e-01 3.4576174616813660e-01</leafValues></_>
    <_>
      <internalNodes>
        0 -1 9762 -108555621 -1278109565 -2046710774 -2046468794
        -589905279 1259672739 -258931065 -1948123189</internalNodes>
      <leafValues>
        -3.5256722569465637e-01 6.2062227725982666e-01</leafValues></_>
    <_>
      <internalNodes>
        0 -1 5358 293654740 1535361092 2134608 -1014974207 -2111827320
        35127816 -2113926993 319381601</internalNodes>
      <leafValues>
        -7.0827358961105347e-01 2.9318371415138245e-01</leafValues></_>
    <_>
      <internalNodes>
        0 -1 4145 -617622629 -1281105905 1344413762 404918326 -282442741
        184680514 404762835 -208801678</internalNodes>
      <leafValues>
        -3.6701834201812744e-01 5.3306847810745239e-01</leafValues></_>
    <_>
      <internalNodes>
        0 -1 4666 -1861464757 -2124332980 1343263009 -1338560219
        1292349863 -532668128 1447067699 2115168706</internalNodes>
      <leafValues>
        -4.7285401821136475e-01 4.0696093440055847e-01</leafValues></_>
    <_>
      <internalNodes>
        0 -1 2233 -402472047 -1055621118 1426260119 57573388 335737227
        554174600 193072079 2052019432</internalNodes>
      <leafValues>
        -4.6249461174011230e-01 4.3965685367584229e-01</leafValues></_></weakClassifiers></stage30>
</opencv_storage>
