<?xml version="1.0"?>
<opencv_storage>
<stage10>
  <maxWeakCount>10</maxWeakCount>
  <stageThreshold>5.9988099336624146e-01</stageThreshold>
  <weakClassifiers>
    <_>
      <internalNodes>
        0 -1 8313 0 993002833 1595825976 201985360 33685513 1060017977
        36834312 50464000</internalNodes>
      <leafValues>
        1.6908212006092072e-01 9.6726369857788086e-01</leafValues></_>
    <_>
      <internalNodes>
        0 -1 6444 1090524508 393224184 -1122491560 478158976 -57379652
        -1131392704 -1411629836 134217728</internalNodes>
      <leafValues>
        -1.9012629985809326e-01 8.5088771581649780e-01</leafValues></_>
    <_>
      <internalNodes>
        0 -1 9276 -643567181 -1356678232 -2143907567 -105388256
        -1610493952 -1375029696 1124176273 1399559857</internalNodes>
      <leafValues>
        -3.4456831216812134e-01 6.8046092987060547e-01</leafValues></_>
    <_>
      <internalNodes>
        0 -1 6145 -27332591 -792388219 1899422495 405352651 -800479219
        -321012965 -1717454786 -1436821378</internalNodes>
      <leafValues>
        -4.3904215097427368e-01 6.1548566818237305e-01</leafValues></_>
    <_>
      <internalNodes>
        0 -1 9079 -1993229475 -1716473696 1605668059 -550021843
        941025262 -1079900887 67663341 262603245</internalNodes>
      <leafValues>
        -4.2453894019126892e-01 6.1943578720092773e-01</leafValues></_>
    <_>
      <internalNodes>
        0 -1 8980 -237545249 -1126621937 -1866011395 1889163906
        -1441495032 -637166528 -495923001 -83906881</internalNodes>
      <leafValues>
        -3.5610005259513855e-01 7.0621973276138306e-01</leafValues></_>
    <_>
      <internalNodes>
        0 -1 8422 -1223654482 1004098115 -2147441624 -1029455708
        -1039619576 -1725212639 -357969245 -816520396</internalNodes>
      <leafValues>
        -5.1253247261047363e-01 4.8239251971244812e-01</leafValues></_>
    <_>
      <internalNodes>
        0 -1 8944 -524050575 1149474181 -1876623092 135383199
        -1023271932 -485961724 -670594806 1095934243</internalNodes>
      <leafValues>
        -5.2496713399887085e-01 4.5395466685295105e-01</leafValues></_>
    <_>
      <internalNodes>
        0 -1 8004 282493335 -1751670897 1482659695 268672791 -2079387062
        -1375347700 35713730 -1436880901</internalNodes>
      <leafValues>
        -4.1053992509841919e-01 5.9501969814300537e-01</leafValues></_>
    <_>
      <internalNodes>
        0 -1 5811 -1793319681 -1620674248 547365616 1909633798
        1249332230 1745490634 54043562 -1299673342</internalNodes>
      <leafValues>
        -4.2296347022056580e-01 5.7224589586257935e-01</leafValues></_></weakClassifiers></stage10>
</opencv_storage>
