<?xml version="1.0"?>
<opencv_storage>
<stage22>
  <maxWeakCount>11</maxWeakCount>
  <stageThreshold>8.7205737829208374e-01</stageThreshold>
  <weakClassifiers>
    <_>
      <internalNodes>
        0 -1 5947 1430270856 459063288 1392386792 143130792 1099191232
        559948264 553123840 0</internalNodes>
      <leafValues>
        3.0075186491012573e-01 9.6774190664291382e-01</leafValues></_>
    <_>
      <internalNodes>
        0 -1 7108 -53013483 -665377535 1865662523 -1575354352
        -1875698561 18946769 560804110 974149399</internalNodes>
      <leafValues>
        1.9051006436347961e-01 8.8006830215454102e-01</leafValues></_>
    <_>
      <internalNodes>
        0 -1 7374 419534329 -1114357751 -2028195751 1028779169 689473461
        -321886836 984770984 1001128120</internalNodes>
      <leafValues>
        -2.7604117989540100e-01 6.8470901250839233e-01</leafValues></_>
    <_>
      <internalNodes>
        0 -1 4036 -229285589 -940703582 -996517343 -257579258 862045119
        -1044339507 -1008876875 -1209537361</internalNodes>
      <leafValues>
        -3.6282861232757568e-01 6.2308681011199951e-01</leafValues></_>
    <_>
      <internalNodes>
        0 -1 6275 -1987423233 -1887416062 822186179 -551976684
        -787362933 -1978952829 1346900867 421307267</internalNodes>
      <leafValues>
        -4.6990650892257690e-01 4.6467542648315430e-01</leafValues></_>
    <_>
      <internalNodes>
        0 -1 6928 -2020343537 -464119649 1108976450 -1617031538
        751766253 1622033176 -937813585 -34755621</internalNodes>
      <leafValues>
        -4.0220651030540466e-01 5.5534791946411133e-01</leafValues></_>
    <_>
      <internalNodes>
        0 -1 6230 -915668888 855795776 67442095 1469433600 -2130661385
        -930938720 604411906 602908071</internalNodes>
      <leafValues>
        -6.3149327039718628e-01 3.4606885910034180e-01</leafValues></_>
    <_>
      <internalNodes>
        0 -1 6492 1360040524 1372667908 337185071 2097499525 -1774072325
        -440335872 -1912494065 -813588824</internalNodes>
      <leafValues>
        -3.8630256056785583e-01 6.0505962371826172e-01</leafValues></_>
    <_>
      <internalNodes>
        0 -1 9046 899150691 -1985855230 164005888 -237207422 185313794
        134422530 2038486162 -577967173</internalNodes>
      <leafValues>
        -4.5205545425415039e-01 4.7866538166999817e-01</leafValues></_>
    <_>
      <internalNodes>
        0 -1 8317 -531379883 -1189775253 846457487 2051892037
        -2121383712 -292199862 -1743602982 -1434987267</internalNodes>
      <leafValues>
        -3.2678955793380737e-01 7.3039299249649048e-01</leafValues></_>
    <_>
      <internalNodes>
        0 -1 8047 1146156360 304455780 -919071679 822132902 -2117139678
        1245757492 1895941059 419807382</internalNodes>
      <leafValues>
        -5.5203109979629517e-01 3.9675423502922058e-01</leafValues></_></weakClassifiers></stage22>
</opencv_storage>
