<?xml version="1.0"?>
<opencv_storage>
<stage36>
  <maxWeakCount>13</maxWeakCount>
  <stageThreshold>1.2504338026046753e+00</stageThreshold>
  <weakClassifiers>
    <_>
      <internalNodes>
        0 -1 7606 -66059232 -191723808 2091940976 -1373624796 3145728
        139986960 0 0</internalNodes>
      <leafValues>
        -4.7368422150611877e-01 9.6399796009063721e-01</leafValues></_>
    <_>
      <internalNodes>
        0 -1 6404 11161724 -1944023168 -2007965168 297243298 404049960
        -1672094209 2049985596 539229747</internalNodes>
      <leafValues>
        -6.5772302448749542e-02 8.4176605939865112e-01</leafValues></_>
    <_>
      <internalNodes>
        0 -1 9264 -479333742 -720945437 578547714 -229718749 1574352294
        -1912308709 1658438563 84902555</internalNodes>
      <leafValues>
        -2.4739156663417816e-01 6.3664025068283081e-01</leafValues></_>
    <_>
      <internalNodes>
        0 -1 4214 -1223507626 1362536090 21004625 1510491861 -1065205117
        1564213394 1219167167 1482584619</internalNodes>
      <leafValues>
        -5.5322390794754028e-01 3.8184362649917603e-01</leafValues></_>
    <_>
      <internalNodes>
        0 -1 9034 1720439071 -2138563414 -1073115128 -1601830674
        -402645750 1077968907 827009502 1436518538</internalNodes>
      <leafValues>
        -4.7372159361839294e-01 4.2848411202430725e-01</leafValues></_>
    <_>
      <internalNodes>
        0 -1 8695 -514400149 -84704421 313617223 -779803892 -1445858615
        2696327 -1791432010 -139659762</internalNodes>
      <leafValues>
        -2.8751680254936218e-01 6.8002289533615112e-01</leafValues></_>
    <_>
      <internalNodes>
        0 -1 4124 553951686 -532086584 -633270910 -1283456748
        -1342003009 673906914 -218050400 1700987467</internalNodes>
      <leafValues>
        -5.6658148765563965e-01 3.4796914458274841e-01</leafValues></_>
    <_>
      <internalNodes>
        0 -1 5101 335584132 -675016431 268503390 1454526934 -2146402064
        -1577046016 -1866395489 1973633225</internalNodes>
      <leafValues>
        -5.2403664588928223e-01 3.6843648552894592e-01</leafValues></_>
    <_>
      <internalNodes>
        0 -1 6252 -1047379382 -707788625 26054935 1946193924 136919948
        455094400 963898432 538474696</internalNodes>
      <leafValues>
        -5.7099926471710205e-01 3.4499952197074890e-01</leafValues></_>
    <_>
      <internalNodes>
        0 -1 8337 485940225 -1861935103 32769 1096089601 -2004794869
        -360617847 11391687 -547100867</internalNodes>
      <leafValues>
        -4.7989186644554138e-01 4.2553856968879700e-01</leafValues></_>
    <_>
      <internalNodes>
        0 -1 5871 -1380904573 -1040776172 -1610943506 -779550679
        86149254 -1578332512 -568620324 -312502899</internalNodes>
      <leafValues>
        -3.2616689801216125e-01 5.9152072668075562e-01</leafValues></_>
    <_>
      <internalNodes>
        0 -1 1247 -634912869 1882734732 -1604282238 -2125627260
        -863009883 -2142992216 1073776704 1413131797</internalNodes>
      <leafValues>
        -4.0194803476333618e-01 4.5704618096351624e-01</leafValues></_>
    <_>
      <internalNodes>
        0 -1 8101 -263010042 25428232 -2010611429 1075413017 -1945358195
        -2137489212 -1597992265 335823108</internalNodes>
      <leafValues>
        -5.4189431667327881e-01 3.2464995980262756e-01</leafValues></_></weakClassifiers></stage36>
</opencv_storage>
