<?xml version="1.0"?>
<opencv_storage>
<stage34>
  <maxWeakCount>14</maxWeakCount>
  <stageThreshold>7.0352059602737427e-01</stageThreshold>
  <weakClassifiers>
    <_>
      <internalNodes>
        0 -1 7347 134479872 136344224 -1480934368 641559080 1156863072
        71058860 68699136 1028</internalNodes>
      <leafValues>
        -4.5871559530496597e-02 9.6510577201843262e-01</leafValues></_>
    <_>
      <internalNodes>
        0 -1 8410 607773444 572847364 -830781952 1286221546 -2146393080
        827294720 -1689458714 1933897264</internalNodes>
      <leafValues>
        1.3793888688087463e-01 8.5917663574218750e-01</leafValues></_>
    <_>
      <internalNodes>
        0 -1 5775 -1438494470 -520080736 1424429173 1965061936
        -2103540533 -1886643293 -765533470 260837760</internalNodes>
      <leafValues>
        -3.5236647725105286e-01 5.8607161045074463e-01</leafValues></_>
    <_>
      <internalNodes>
        0 -1 5915 -787431083 353796189 -1073676288 222011667 1091871485
        -1837072300 -1037520503 -1473359625</internalNodes>
      <leafValues>
        -4.6840813755989075e-01 4.4456022977828979e-01</leafValues></_>
    <_>
      <internalNodes>
        0 -1 2416 -976755037 -1841207454 -986938085 -2139897705
        -1060959099 -201310200 176883942 -524099456</internalNodes>
      <leafValues>
        -3.5823351144790649e-01 5.6771010160446167e-01</leafValues></_>
    <_>
      <internalNodes>
        0 -1 8027 -212534978 -267675731 405800076 -215580549 -1302432758
        -195303232 -2147310957 -1978671013</internalNodes>
      <leafValues>
        -4.6643382310867310e-01 4.4475036859512329e-01</leafValues></_>
    <_>
      <internalNodes>
        0 -1 6122 -1044320832 -1760534125 -267169539 -846624631
        -2138465828 -109051732 -1440175699 1098975713</internalNodes>
      <leafValues>
        -4.3112641572952271e-01 4.3833452463150024e-01</leafValues></_>
    <_>
      <internalNodes>
        0 -1 5208 -1335737153 -88449231 463568919 285370433 -1867906468
        -863448812 -395772457 963080577</internalNodes>
      <leafValues>
        -3.8360396027565002e-01 4.7814339399337769e-01</leafValues></_>
    <_>
      <internalNodes>
        0 -1 5777 -1300109296 893949209 268521763 1536362706 -1870009441
        -536248311 982925578 480787209</internalNodes>
      <leafValues>
        -5.3507822751998901e-01 3.4984374046325684e-01</leafValues></_>
    <_>
      <internalNodes>
        0 -1 6974 -802696957 -1912600430 16843161 815267849 -1987997385
        -2009790332 1762661664 -1279538951</internalNodes>
      <leafValues>
        -4.9481987953186035e-01 3.8840535283088684e-01</leafValues></_>
    <_>
      <internalNodes>
        0 -1 6336 -1862181731 -653713029 19923120 1048815057 -99513636
        -979238858 -1207791414 -259665231</internalNodes>
      <leafValues>
        -3.2310473918914795e-01 5.7390046119689941e-01</leafValues></_>
    <_>
      <internalNodes>
        0 -1 9064 -1047543327 -1862172621 -1877179328 -1312800767
        -2113822456 -1610513920 -888303479 1263509702</internalNodes>
      <leafValues>
        -4.1173189878463745e-01 4.6824434399604797e-01</leafValues></_>
    <_>
      <internalNodes>
        0 -1 8101 -1073618769 1157928068 31050747 -884116927 -1067593559
        -515801047 -1073174509 -199458772</internalNodes>
      <leafValues>
        -3.5903865098953247e-01 4.8544567823410034e-01</leafValues></_>
    <_>
      <internalNodes>
        0 -1 7782 58756545 188276036 -268469079 -651155643 204535224
        -548241656 1034038539 -1642511939</internalNodes>
      <leafValues>
        -3.4306710958480835e-01 5.3425973653793335e-01</leafValues></_></weakClassifiers></stage34>
</opencv_storage>
