<?xml version="1.0"?>
<opencv_storage>
<stage20>
  <maxWeakCount>11</maxWeakCount>
  <stageThreshold>7.2173309326171875e-01</stageThreshold>
  <weakClassifiers>
    <_>
      <internalNodes>
        0 -1 7321 556466176 673851906 645595136 606275360 1465976064
        118206248 3473408 8192</internalNodes>
      <leafValues>
        -2.1839080750942230e-01 9.6482115983963013e-01</leafValues></_>
    <_>
      <internalNodes>
        0 -1 3950 -2117295486 -1833861074 51151374 235865031 -361619192
        4096 307042059 67440969</internalNodes>
      <leafValues>
        -1.7430526018142700e-01 8.3936220407485962e-01</leafValues></_>
    <_>
      <internalNodes>
        0 -1 4228 -654051745 -355753931 1344299043 1384260203
        -1270477822 1214989397 -201424154 1465096449</internalNodes>
      <leafValues>
        -2.9194620251655579e-01 6.7855548858642578e-01</leafValues></_>
    <_>
      <internalNodes>
        0 -1 2160 -1787627202 -256603971 -670777061 1685491714
        -886185104 138617216 -50227029 -29029849</internalNodes>
      <leafValues>
        -5.1358383893966675e-01 4.9267783761024475e-01</leafValues></_>
    <_>
      <internalNodes>
        0 -1 5266 1900524359 -431306910 1182167827 810893831 -1016953205
        269632267 2129687327 1506257393</internalNodes>
      <leafValues>
        -4.9952924251556396e-01 5.1465338468551636e-01</leafValues></_>
    <_>
      <internalNodes>
        0 -1 9629 -244850401 -2113498039 -1070438400 -1803386622
        -1031775215 540675 -754237180 -34886030</internalNodes>
      <leafValues>
        -3.8037347793579102e-01 6.4695554971694946e-01</leafValues></_>
    <_>
      <internalNodes>
        0 -1 6137 -242141127 -1856672495 1942487387 -26494331
        -1066353231 -652333390 65756 -2001883173</internalNodes>
      <leafValues>
        -3.8955044746398926e-01 6.4135110378265381e-01</leafValues></_>
    <_>
      <internalNodes>
        0 -1 8422 -237113074 1122589657 1445511242 -555172280
        -1244164020 -243911353 1986954930 -38199048</internalNodes>
      <leafValues>
        -4.5934817194938660e-01 5.3050148487091064e-01</leafValues></_>
    <_>
      <internalNodes>
        0 -1 5787 -132114723 -1724542061 286066728 118687886 -2145378261
        -21495680 1780672994 326439694</internalNodes>
      <leafValues>
        -5.0686889886856079e-01 4.3232601881027222e-01</leafValues></_>
    <_>
      <internalNodes>
        0 -1 2622 -521869145 1108058190 1480097858 -1067186872
        1615507539 1650401321 272736279 -403202726</internalNodes>
      <leafValues>
        -5.3955507278442383e-01 4.2153275012969971e-01</leafValues></_>
    <_>
      <internalNodes>
        0 -1 5973 -2060423883 1009991474 1399537495 -1656946891
        -1133394440 833944997 -1246709192 697208088</internalNodes>
      <leafValues>
        -4.6133401989936829e-01 5.1537543535232544e-01</leafValues></_></weakClassifiers></stage20>
</opencv_storage>
