<?xml version="1.0"?>
<opencv_storage>
<stage23>
  <maxWeakCount>13</maxWeakCount>
  <stageThreshold>9.7839909791946411e-01</stageThreshold>
  <weakClassifiers>
    <_>
      <internalNodes>
        0 -1 7628 387227648 -551878492 -47136972 1057106950 806363168
        708379168 36708352 704782368</internalNodes>
      <leafValues>
        4.4324323534965515e-01 9.6840429306030273e-01</leafValues></_>
    <_>
      <internalNodes>
        0 -1 6914 168569096 729811840 257798208 2070874656 251398924
        362823500 1189993075 815077395</internalNodes>
      <leafValues>
        1.2453430145978928e-01 8.6600691080093384e-01</leafValues></_>
    <_>
      <internalNodes>
        0 -1 4503 1967279842 -108421611 1244914453 -280863806
        -1940127740 1140868260 927040843 454249544</internalNodes>
      <leafValues>
        -4.2431867122650146e-01 6.0071742534637451e-01</leafValues></_>
    <_>
      <internalNodes>
        0 -1 9023 -1155327781 -401930240 508052088 1309099098
        -1916149621 50338818 659206330 1594424027</internalNodes>
      <leafValues>
        -3.7708362936973572e-01 6.0739499330520630e-01</leafValues></_>
    <_>
      <internalNodes>
        0 -1 7374 318832989 336593937 18421895 85136817 -922711815
        -1736318039 107054 253434092</internalNodes>
      <leafValues>
        -4.3524512648582458e-01 4.8986738920211792e-01</leafValues></_>
    <_>
      <internalNodes>
        0 -1 7217 1355780955 -1064451937 1831851139 645933085 -605446869
        -2113269245 -1816027997 -1845763941</internalNodes>
      <leafValues>
        -3.5764849185943604e-01 5.8758991956710815e-01</leafValues></_>
    <_>
      <internalNodes>
        0 -1 6492 537939972 1350906117 319062444 -1253196687 -1118516517
        -1335852356 180784106 -150887889</internalNodes>
      <leafValues>
        -4.2958384752273560e-01 4.7397014498710632e-01</leafValues></_>
    <_>
      <internalNodes>
        0 -1 5375 1405842228 1426391391 536872592 17137802 -1878465849
        201592833 1686639105 814370917</internalNodes>
      <leafValues>
        -5.4153788089752197e-01 3.6999061703681946e-01</leafValues></_>
    <_>
      <internalNodes>
        0 -1 9766 -651705399 1978761243 -1937567096 1076592801
        1077973425 -2010570220 -266146934 -639140902</internalNodes>
      <leafValues>
        -3.0127140879631042e-01 6.6903769969940186e-01</leafValues></_>
    <_>
      <internalNodes>
        0 -1 4043 -247988630 -897023346 -1795030239 -2003451899
        -645840895 234881568 2013927562 304435611</internalNodes>
      <leafValues>
        -4.8855257034301758e-01 3.9665436744689941e-01</leafValues></_>
    <_>
      <internalNodes>
        0 -1 7626 899862481 -1290944695 -1597875850 -2147434650
        1377801352 -359334628 135416786 -234243317</internalNodes>
      <leafValues>
        -3.5729530453681946e-01 5.5147266387939453e-01</leafValues></_>
    <_>
      <internalNodes>
        0 -1 8768 -1943852552 -1288339790 -1783279200 -385602430
        -249302564 -1224604543 1325604665 -545413822</internalNodes>
      <leafValues>
        -3.7653431296348572e-01 5.0784897804260254e-01</leafValues></_>
    <_>
      <internalNodes>
        0 -1 8182 -1873489664 791680897 -717225583 353058817 550519002
        716704128 -771655629 263062983</internalNodes>
      <leafValues>
        -4.3195274472236633e-01 4.5797228813171387e-01</leafValues></_></weakClassifiers></stage23>
</opencv_storage>
