<?xml version="1.0"?>
<opencv_storage>
<stage21>
  <maxWeakCount>12</maxWeakCount>
  <stageThreshold>6.7299348115921021e-01</stageThreshold>
  <weakClassifiers>
    <_>
      <internalNodes>
        0 -1 7744 33566752 2097152 426780844 213134480 269571188 1049984
        69222404 262144</internalNodes>
      <leafValues>
        7.4829928576946259e-02 9.6592116355895996e-01</leafValues></_>
    <_>
      <internalNodes>
        0 -1 7350 -255975120 202433688 -774841999 -846381913 -322124376
        220515340 -1454470912 201961228</internalNodes>
      <leafValues>
        7.9387977719306946e-02 8.5998237133026123e-01</leafValues></_>
    <_>
      <internalNodes>
        0 -1 4122 -1812989733 400506971 435211278 1501603970 -768014326
        202376257 1797767742 -540030738</internalNodes>
      <leafValues>
        -6.9211356341838837e-02 8.2654851675033569e-01</leafValues></_>
    <_>
      <internalNodes>
        0 -1 4312 -1911827271 -2129972475 990445601 -1080217334 50961575
        844342362 -2121860275 -1979463540</internalNodes>
      <leafValues>
        -4.3460831046104431e-01 5.1680880784988403e-01</leafValues></_>
    <_>
      <internalNodes>
        0 -1 5426 -796900292 2018003736 202101365 981598257 -125263427
        -644799831 -1157551348 470475418</internalNodes>
      <leafValues>
        -4.9584847688674927e-01 4.4017550349235535e-01</leafValues></_>
    <_>
      <internalNodes>
        0 -1 8410 580710795 1255593102 -836562130 -1323357350
        -1977617335 -1207557120 -388645678 -614132164</internalNodes>
      <leafValues>
        -4.4245991110801697e-01 5.2507072687149048e-01</leafValues></_>
    <_>
      <internalNodes>
        0 -1 6312 -899784099 -771686049 486628738 1271730265 794855561
        -1909125984 -248821046 21249715</internalNodes>
      <leafValues>
        -5.0190073251724243e-01 4.4570356607437134e-01</leafValues></_>
    <_>
      <internalNodes>
        0 -1 9763 2101607407 142608399 245366816 -1929345014 -989755743
        146037815 -989337400 -649069681</internalNodes>
      <leafValues>
        -2.9894706606864929e-01 7.1049964427947998e-01</leafValues></_>
    <_>
      <internalNodes>
        0 -1 8667 1920795069 -2076179825 34148370 1088622915 34119818
        -1065320054 187368105 792449160</internalNodes>
      <leafValues>
        -4.5738112926483154e-01 4.6412909030914307e-01</leafValues></_>
    <_>
      <internalNodes>
        0 -1 4828 -101477665 -964246140 817379889 554715799 -731052984
        -1890842612 -1328421621 1934863378</internalNodes>
      <leafValues>
        -4.2413502931594849e-01 4.8887348175048828e-01</leafValues></_>
    <_>
      <internalNodes>
        0 -1 7618 -1878659944 -654031272 -2138029309 201851018
        1483720960 -662141759 -2002147340 1569572379</internalNodes>
      <leafValues>
        -5.6456285715103149e-01 3.6392295360565186e-01</leafValues></_>
    <_>
      <internalNodes>
        0 -1 7744 1376055469 -214646702 2071211437 -1644938054 303789173
        -2123348581 -1526708017 1452769991</internalNodes>
      <leafValues>
        -3.4622925519943237e-01 5.9688359498977661e-01</leafValues></_></weakClassifiers></stage21>
</opencv_storage>
