<?xml version="1.0"?>
<opencv_storage>
<stage29>
  <maxWeakCount>12</maxWeakCount>
  <stageThreshold>4.6696251630783081e-01</stageThreshold>
  <weakClassifiers>
    <_>
      <internalNodes>
        0 -1 3619 719719936 3074 16525474 8403174 1197818880 282116
        610755648 292672</internalNodes>
      <leafValues>
        -1.4563107490539551e-01 9.6527147293090820e-01</leafValues></_>
    <_>
      <internalNodes>
        0 -1 5947 5808528 1794424544 -604301006 425793952 4768740
        -196056328 -2114190128 696254464</internalNodes>
      <leafValues>
        -5.0193991512060165e-02 8.4404999017715454e-01</leafValues></_>
    <_>
      <internalNodes>
        0 -1 2855 -527472501 -284229531 352256112 -598933265 -1272642009
        84231193 592930207 2010326275</internalNodes>
      <leafValues>
        -3.5086461901664734e-01 6.2175983190536499e-01</leafValues></_>
    <_>
      <internalNodes>
        0 -1 8020 -137257327 -649993283 1361375579 1402340147
        -1643853240 1862870082 1073791896 1581662420</internalNodes>
      <leafValues>
        -4.5520707964897156e-01 4.9132937192916870e-01</leafValues></_>
    <_>
      <internalNodes>
        0 -1 8599 -1978043565 2014674945 -654012406 -1391095534
        -1744632945 -871833366 -1459076768 672857934</internalNodes>
      <leafValues>
        -5.3260469436645508e-01 4.3018054962158203e-01</leafValues></_>
    <_>
      <internalNodes>
        0 -1 8060 549700591 1679622288 588191215 1880521794 1633081868
        854144792 -784301921 -983474170</internalNodes>
      <leafValues>
        -4.2187914252281189e-01 4.9617961049079895e-01</leafValues></_>
    <_>
      <internalNodes>
        0 -1 5238 -41045698 -575963003 -847775240 -777043929 -1703638621
        -1957953277 1221285507 -637346357</internalNodes>
      <leafValues>
        -3.6015301942825317e-01 5.6140661239624023e-01</leafValues></_>
    <_>
      <internalNodes>
        0 -1 2835 -298663465 -618566889 1810499179 299806128 1309137111
        -1104147409 1073704263 1406698722</internalNodes>
      <leafValues>
        -3.8769096136093140e-01 5.2011358737945557e-01</leafValues></_>
    <_>
      <internalNodes>
        0 -1 3960 -1047533687 1627633185 122408379 1158742402 1669914895
        -1406892767 -946526502 -1016143744</internalNodes>
      <leafValues>
        -3.3432069420814514e-01 5.7299214601516724e-01</leafValues></_>
    <_>
      <internalNodes>
        0 -1 6775 607949521 -1023094271 268535813 -1715171243
        -2037895879 -2147287037 1648873635 445432704</internalNodes>
      <leafValues>
        -4.6751111745834351e-01 4.3607640266418457e-01</leafValues></_>
    <_>
      <internalNodes>
        0 -1 9665 -716465057 354961706 1651578888 -675131271 -251789222
        338173738 1611121376 -703661846</internalNodes>
      <leafValues>
        -3.6393323540687561e-01 5.3614693880081177e-01</leafValues></_>
    <_>
      <internalNodes>
        0 -1 3936 -903432997 -417791918 -1991242602 424108049 13239338
        -1333624190 604055203 -1764066653</internalNodes>
      <leafValues>
        -5.1140862703323364e-01 3.7531346082687378e-01</leafValues></_></weakClassifiers></stage29>
</opencv_storage>
