<?xml version="1.0"?>
<opencv_storage>
<stage13>
  <maxWeakCount>10</maxWeakCount>
  <stageThreshold>1.2542454004287720e+00</stageThreshold>
  <weakClassifiers>
    <_>
      <internalNodes>
        0 -1 6876 2176 269486592 1544063520 424673312 5245632 340791588
        257688296 0</internalNodes>
      <leafValues>
        -4.3478261679410934e-02 9.6624869108200073e-01</leafValues></_>
    <_>
      <internalNodes>
        0 -1 4182 335573714 1358990876 707277624 16786088 536888338
        1808279680 1800595167 88164005</internalNodes>
      <leafValues>
        -3.5937394946813583e-02 8.5990822315216064e-01</leafValues></_>
    <_>
      <internalNodes>
        0 -1 9240 -1052728830 -1014690206 1613234690 1082451502
        470133760 84692740 -1467512696 -961576757</internalNodes>
      <leafValues>
        -2.7521410584449768e-01 6.9811528921127319e-01</leafValues></_>
    <_>
      <internalNodes>
        0 -1 9676 -768892798 -2138996736 -1879043888 -795868646
        -1878753270 65539 1351387346 -913071481</internalNodes>
      <leafValues>
        -4.3916848301887512e-01 5.5363035202026367e-01</leafValues></_>
    <_>
      <internalNodes>
        0 -1 7137 -748684720 1665208580 -2145795749 -1660927724
        176455818 -2111305600 42377359 -123940672</internalNodes>
      <leafValues>
        -4.9716734886169434e-01 4.9942532181739807e-01</leafValues></_>
    <_>
      <internalNodes>
        0 -1 5297 -639655764 1398505643 1261486112 965943313 -2006739814
        -838598520 1142363275 -936522349</internalNodes>
      <leafValues>
        -4.0329405665397644e-01 5.9697067737579346e-01</leafValues></_>
    <_>
      <internalNodes>
        0 -1 167 -837893889 1947795522 -2042015269 1192886529 -930133606
        -1557919736 1513261727 -365735788</internalNodes>
      <leafValues>
        -4.7306436300277710e-01 4.6313780546188354e-01</leafValues></_>
    <_>
      <internalNodes>
        0 -1 8410 -1864089046 272630288 -1878966216 272855296
        -1335588788 -754876415 553882019 -1086094698</internalNodes>
      <leafValues>
        -4.6382993459701538e-01 4.7670587897300720e-01</leafValues></_>
    <_>
      <internalNodes>
        0 -1 7652 -34866552 1503462468 252280033 151125539 1043438211
        -1727740414 620933810 659288618</internalNodes>
      <leafValues>
        -4.6255293488502502e-01 4.9526160955429077e-01</leafValues></_>
    <_>
      <internalNodes>
        0 -1 3599 -640204710 -695335344 537028721 420790889 1388577280
        -595573751 -1563384082 -833370401</internalNodes>
      <leafValues>
        -3.9217284321784973e-01 5.5203622579574585e-01</leafValues></_></weakClassifiers></stage13>
</opencv_storage>
