<?xml version="1.0"?>
<opencv_storage>
<stage2>
  <maxWeakCount>8</maxWeakCount>
  <stageThreshold>4.5977142453193665e-01</stageThreshold>
  <weakClassifiers>
    <_>
      <internalNodes>
        0 -1 7922 0 355994640 389946811 455086096 287838232 1069162166
        86507832 285343760</internalNodes>
      <leafValues>
        -9.1954022645950317e-02 9.6801704168319702e-01</leafValues></_>
    <_>
      <internalNodes>
        0 -1 4653 -134696568 -1151737720 33685504 851509248 -623922216
        -1726957944 1074201098 420020743</internalNodes>
      <leafValues>
        -6.4275078475475311e-02 8.8206100463867188e-01</leafValues></_>
    <_>
      <internalNodes>
        0 -1 8739 -507780685 1273752354 1095762033 -741093101 1376239872
        -1979579646 537829617 -552615525</internalNodes>
      <leafValues>
        -2.0593449473381042e-01 8.1899881362915039e-01</leafValues></_>
    <_>
      <internalNodes>
        0 -1 3935 -897125633 -943398874 618746233 -714006175 -1072936485
        -2004213696 1095258512 -1611926301</internalNodes>
      <leafValues>
        -3.8405370712280273e-01 7.2552484273910522e-01</leafValues></_>
    <_>
      <internalNodes>
        0 -1 1750 -375919442 -1887090687 278589 419791107 -385253190
        -880607104 839480495 1425363009</internalNodes>
      <leafValues>
        -5.1605105400085449e-01 5.5618566274642944e-01</leafValues></_>
    <_>
      <internalNodes>
        0 -1 5837 1398274001 -754744896 50397200 1261638016 209715407
        193659009 199115 1527011849</internalNodes>
      <leafValues>
        -5.8296644687652588e-01 5.0526303052902222e-01</leafValues></_>
    <_>
      <internalNodes>
        0 -1 5746 -1568477039 -2130377696 10715637 1460998161
        -2000079910 -391479152 170528976 -823410544</internalNodes>
      <leafValues>
        -5.0923383235931396e-01 5.4199862480163574e-01</leafValues></_>
    <_>
      <internalNodes>
        0 -1 8150 -745027337 -2063433975 1231044625 1429950979
        -1855356792 -2004320054 -1857109824 -801779158</internalNodes>
      <leafValues>
        -4.0619719028472900e-01 6.8056482076644897e-01</leafValues></_></weakClassifiers></stage2>
</opencv_storage>
