<?xml version="1.0"?>
<opencv_storage>
<stage31>
  <maxWeakCount>13</maxWeakCount>
  <stageThreshold>7.5685447454452515e-01</stageThreshold>
  <weakClassifiers>
    <_>
      <internalNodes>
        0 -1 7741 67110144 340836148 536620652 579894064 359931220
        873775092 823407700 0</internalNodes>
      <leafValues>
        -1.9047619402408600e-01 9.6458923816680908e-01</leafValues></_>
    <_>
      <internalNodes>
        0 -1 9270 -13823821 -2111589245 543303536 98532393 70038531
        487257360 269772032 5082638</internalNodes>
      <leafValues>
        1.5278518199920654e-01 8.6427038908004761e-01</leafValues></_>
    <_>
      <internalNodes>
        0 -1 5754 -107564484 -1982394237 431052456 298648899 -801980113
        -797269613 -1561206198 161615539</internalNodes>
      <leafValues>
        -3.3183869719505310e-01 6.0323154926300049e-01</leafValues></_>
    <_>
      <internalNodes>
        0 -1 5916 54758383 810828249 1359033426 -1518514023 -1879011389
        1124335872 67643963 1628178512</internalNodes>
      <leafValues>
        -5.3498226404190063e-01 4.2173573374748230e-01</leafValues></_>
    <_>
      <internalNodes>
        0 -1 7217 -763508869 1917173884 740722503 -441175886 -966800605
        585132666 -863641957 -239213426</internalNodes>
      <leafValues>
        -4.0882939100265503e-01 5.4385256767272949e-01</leafValues></_>
    <_>
      <internalNodes>
        0 -1 8380 -404110963 -246009965 15536981 1918019909 -1582380086
        -1822126844 573098172 1476939139</internalNodes>
      <leafValues>
        -3.8466614484786987e-01 4.9721980094909668e-01</leafValues></_>
    <_>
      <internalNodes>
        0 -1 6224 143192224 1547021569 1124327770 302484352 -1878728024
        -519960512 -591204070 -1362225018</internalNodes>
      <leafValues>
        -5.6850785017013550e-01 3.3389136195182800e-01</leafValues></_>
    <_>
      <internalNodes>
        0 -1 9286 -2091781102 595756240 286294228 -141475264 320978649
        -1845493616 107497980 -810349175</internalNodes>
      <leafValues>
        -4.2524060606956482e-01 4.5107299089431763e-01</leafValues></_>
    <_>
      <internalNodes>
        0 -1 4047 -444118121 1899007140 -1322965601 1128451586
        -1622286219 -1194752908 -1604540726 -228758741</internalNodes>
      <leafValues>
        -3.5085946321487427e-01 5.8114767074584961e-01</leafValues></_>
    <_>
      <internalNodes>
        0 -1 3456 1179056607 982863150 625011782 2131184234 906090283
        1688811116 -666884090 1934457955</internalNodes>
      <leafValues>
        -3.7303677201271057e-01 5.0551110506057739e-01</leafValues></_>
    <_>
      <internalNodes>
        0 -1 358 -187571075 776175950 168035548 -805259974 -737595103
        -1609859072 278923904 -2075884992</internalNodes>
      <leafValues>
        -4.7015437483787537e-01 3.9690124988555908e-01</leafValues></_>
    <_>
      <internalNodes>
        0 -1 5875 -76450005 1024458903 78686729 602881 -2079997911
        1243093219 -561377246 375023888</internalNodes>
      <leafValues>
        -4.7640758752822876e-01 4.0430602431297302e-01</leafValues></_>
    <_>
      <internalNodes>
        0 -1 909 -1945703700 286462032 -2122049231 -1458089717 916783105
        -526309109 1510029706 -452616124</internalNodes>
      <leafValues>
        -5.7795339822769165e-01 3.0575567483901978e-01</leafValues></_></weakClassifiers></stage31>
</opencv_storage>
