<?xml version="1.0"?>
<opencv_storage>
<stage35>
  <maxWeakCount>12</maxWeakCount>
  <stageThreshold>6.6305416822433472e-01</stageThreshold>
  <weakClassifiers>
    <_>
      <internalNodes>
        0 -1 6441 1219515448 511184008 1073487800 278926484 741883952
        219690096 801136304 1072</internalNodes>
      <leafValues>
        2.5764191150665283e-01 9.6715605258941650e-01</leafValues></_>
    <_>
      <internalNodes>
        0 -1 6722 1550117376 -1860590847 -260035722 1526775145
        -1277672470 -66569047 2031397056 -1710173976</internalNodes>
      <leafValues>
        2.6971256732940674e-01 8.8384193181991577e-01</leafValues></_>
    <_>
      <internalNodes>
        0 -1 9442 1476346163 959690934 -1128798096 -1627012078
        1867817227 134276000 1343242632 1865475034</internalNodes>
      <leafValues>
        -2.5693261623382568e-01 6.5930777788162231e-01</leafValues></_>
    <_>
      <internalNodes>
        0 -1 1403 -709120049 -234690167 306416266 -1608121784
        -1624571771 846206411 -1675457336 1681048203</internalNodes>
      <leafValues>
        -4.3167158961296082e-01 4.7213837504386902e-01</leafValues></_>
    <_>
      <internalNodes>
        0 -1 9034 -1038887437 209815073 4538386 1353045382 -1820282312
        1073807368 2039079131 353753817</internalNodes>
      <leafValues>
        -4.9158883094787598e-01 4.2518731951713562e-01</leafValues></_>
    <_>
      <internalNodes>
        0 -1 8764 1630726833 -950000607 1493266753 -576667147
        -1725887043 -594899560 -1967212147 -560993815</internalNodes>
      <leafValues>
        -3.6356595158576965e-01 5.5292975902557373e-01</leafValues></_>
    <_>
      <internalNodes>
        0 -1 5831 1937864141 -1156759162 -1308470204 1410412674 570019
        2081988994 268488590 1021032915</internalNodes>
      <leafValues>
        -4.5217329263687134e-01 4.6695846319198608e-01</leafValues></_>
    <_>
      <internalNodes>
        0 -1 8578 -660717503 -932360191 -2129264177 -674628851 528829
        1220905129 672049850 -1709676182</internalNodes>
      <leafValues>
        -4.5021075010299683e-01 4.1334477066993713e-01</leafValues></_>
    <_>
      <internalNodes>
        0 -1 4211 -975473185 1765802298 2812408 297123938 -287177560
        -995622720 -555070328 -855151725</internalNodes>
      <leafValues>
        -3.4270948171615601e-01 5.8415579795837402e-01</leafValues></_>
    <_>
      <internalNodes>
        0 -1 5879 291647887 1527775435 16780696 1163723224 328204482
        58737680 -779436013 1242581476</internalNodes>
      <leafValues>
        -5.5864495038986206e-01 3.3972093462944031e-01</leafValues></_>
    <_>
      <internalNodes>
        0 -1 8746 -224811519 -2136080166 1226834768 -1853497277
        -645804024 -2146336765 -737949560 -1981278164</internalNodes>
      <leafValues>
        -4.3453857302665710e-01 4.2566937208175659e-01</leafValues></_>
    <_>
      <internalNodes>
        0 -1 4523 -1734682381 327516640 481456337 1595076706 -1576386479
        -836406224 -2046671157 -2006199159</internalNodes>
      <leafValues>
        -3.9345782995223999e-01 4.6856385469436646e-01</leafValues></_></weakClassifiers></stage35>
</opencv_storage>
