<?xml version="1.0"?>
<opencv_storage>
<stage26>
  <maxWeakCount>12</maxWeakCount>
  <stageThreshold>1.0555431842803955e+00</stageThreshold>
  <weakClassifiers>
    <_>
      <internalNodes>
        0 -1 7734 661594624 2371330 715597824 2106112 936846080 276224
        626327552 32</internalNodes>
      <leafValues>
        -4.3333333730697632e-01 9.6407234668731689e-01</leafValues></_>
    <_>
      <internalNodes>
        0 -1 9059 -1311288469 622476050 1292639444 1898162240 -82059488
        136323584 1207964977 315153</internalNodes>
      <leafValues>
        6.5690785646438599e-02 8.6133456230163574e-01</leafValues></_>
    <_>
      <internalNodes>
        0 -1 7949 -227802799 -948437482 171400766 1062387871 -315592550
        -344335557 -914701384 -851834754</internalNodes>
      <leafValues>
        -1.9600164890289307e-01 6.9555860757827759e-01</leafValues></_>
    <_>
      <internalNodes>
        0 -1 4722 800529091 -716795613 480268030 1528830306 -1647435638
        134486398 237661368 -697631350</internalNodes>
      <leafValues>
        -3.7940993905067444e-01 5.3560912609100342e-01</leafValues></_>
    <_>
      <internalNodes>
        0 -1 5664 -1867511648 -31915821 536890582 -1659609007
        -1596417893 -551189493 -1996370957 289743117</internalNodes>
      <leafValues>
        -5.7745486497879028e-01 3.9822328090667725e-01</leafValues></_>
    <_>
      <internalNodes>
        0 -1 9486 -1186217317 -2136766294 -265701923 -1318753803
        814267544 -1163700831 -483586371 -1748245829</internalNodes>
      <leafValues>
        -3.2655230164527893e-01 7.1547424793243408e-01</leafValues></_>
    <_>
      <internalNodes>
        0 -1 8434 142574607 981528645 3940570 -774844266 -643764124
        -608173405 -1878277418 -889326159</internalNodes>
      <leafValues>
        -4.3898358941078186e-01 5.0823187828063965e-01</leafValues></_>
    <_>
      <internalNodes>
        0 -1 7543 -2054495981 1633262367 278876 901170497 -387345645
        -1167261440 -1475430360 -1193350457</internalNodes>
      <leafValues>
        -4.4693449139595032e-01 4.5439565181732178e-01</leafValues></_>
    <_>
      <internalNodes>
        0 -1 6807 1888277215 1364693779 554411530 361863190 268475092
        -1937506032 84623510 922855578</internalNodes>
      <leafValues>
        -5.0492829084396362e-01 4.0455329418182373e-01</leafValues></_>
    <_>
      <internalNodes>
        0 -1 6275 -1532995845 1770520578 272843057 1460748433 -477482581
        244490923 832561285 1135198627</internalNodes>
      <leafValues>
        -5.0598835945129395e-01 4.1232717037200928e-01</leafValues></_>
    <_>
      <internalNodes>
        0 -1 8995 1051672683 1227843243 49170639 1383867001 -698908664
        -992104892 -1039490912 -22348049</internalNodes>
      <leafValues>
        -4.3995901942253113e-01 4.6081465482711792e-01</leafValues></_>
    <_>
      <internalNodes>
        0 -1 9035 -2129000624 1666368016 21196096 1362118984 1635979272
        537018376 -1676754720 370518184</internalNodes>
      <leafValues>
        -6.4091473817825317e-01 3.1720700860023499e-01</leafValues></_></weakClassifiers></stage26>
</opencv_storage>
