<?xml version="1.0"?>
<opencv_storage>
<stage0>
  <maxWeakCount>7</maxWeakCount>
  <stageThreshold>6.5346550941467285e-01</stageThreshold>
  <weakClassifiers>
    <_>
      <internalNodes>
        0 -1 5838 1358993600 1430522368 0 1358954496 136 239076036 20696
        285217024</internalNodes>
      <leafValues>
        1.4628297090530396e-01 9.7432523965835571e-01</leafValues></_>
    <_>
      <internalNodes>
        0 -1 4021 -83590488 -611360128 514 50429952 -666894200 134217728
        16926287 55013707</internalNodes>
      <leafValues>
        -1.9452293217182159e-01 8.9897865056991577e-01</leafValues></_>
    <_>
      <internalNodes>
        0 -1 7706 -781463424 -586903168 343675217 1996685361 -867397992
        -1920413816 1158197441 -1677082495</internalNodes>
      <leafValues>
        -4.2498141527175903e-01 8.1937652826309204e-01</leafValues></_>
    <_>
      <internalNodes>
        0 -1 3936 -1065159725 -1425822928 1090598611 1392719793 526507
        -880620416 16627 -82361453</internalNodes>
      <leafValues>
        -4.6273967623710632e-01 7.7574449777603149e-01</leafValues></_>
    <_>
      <internalNodes>
        0 -1 2864 -712969998 -14474094 807416433 1377309472 150995096
        -1454887644 1243633147 -544536878</internalNodes>
      <leafValues>
        -5.0465971231460571e-01 6.9917571544647217e-01</leafValues></_>
    <_>
      <internalNodes>
        0 -1 8118 -583994888 -486334464 9457749 -721043439 1082294441
        -2010542048 42485976 252395757</internalNodes>
      <leafValues>
        -5.6551647186279297e-01 6.1466544866561890e-01</leafValues></_>
    <_>
      <internalNodes>
        0 -1 2409 -754719990 -1016782531 -1853844911 -785788337
        -368474998 -2079612928 -1610579821 -733808630</internalNodes>
      <leafValues>
        -5.0629907846450806e-01 6.6154038906097412e-01</leafValues></_></weakClassifiers></stage0>
</opencv_storage>
